{
  "layers": [
    {
      "activation": 1,
      "biases": [
        -2.9368757339306963,
        -5.323282569364054,
        5.142654772367125,
        3.5867884952076126,
        4.305705367718667,
        -0.7680767183636842,
        1.7045397674737048,
        0.8392463767927445,
        2.455603823364197,
        0.5228846922847794,
        -4.703537460639137,
        -0.11531320648632623,
        -0.032727998457697166,
        -0.7814631600337834,
        1.3537165791409567,
        -3.235550826936068
      ],
      "cols": 16,
      "rows": 4,
      "weights": [
        [
          3.87611982945556,
          2.6460493165402625,
          3.165889985564693,
          -4.357664355813673,
          -1.012326645621802,
          7.577932406279037,
          -1.395819948125287,
          -5.715779302940983,
          -1.8757160495108014,
          -2.9120441371744104,
          3.6339572529938122,
          0.6911615159325214,
          4.283244472162991,
          5.436559935624527,
          2.287343326741068,
          4.00129440080232
        ],
        [
          2.7852264375003934,
          1.4481470492529276,
          2.5958890756633664,
          -3.227440343735764,
          -11.028700495637512,
          -1.8013662715282908,
          -4.665359108615194,
          -2.357762812502434,
          -1.5996226677846832,
          8.434898376209077,
          0.1039060525310191,
          2.4903424192178827,
          0.24460662127094157,
          -1.3109073759176335,
          -0.5812431750064089,
          1.9879455773765218
        ],
        [
          2.4643122309756356,
          0.5560263700488469,
          -1.812144821774827,
          -2.508622115306648,
          4.249980331678269,
          4.199717881507525,
          1.5147843762839088,
          6.642972878388324,
          -2.5329088892896143,
          -2.2826842139502515,
          4.103223743424543,
          1.1397346166859472,
          2.7097370479531424,
          -3.8155724281333354,
          -4.361909146264584,
          -2.1239546941434115
        ],
        [
          2.988256173295748,
          1.6475581711644336,
          -9.68996599650097,
          -2.2710205076188115,
          2.1512786848536227,
          -3.3253545387074817,
          -2.282594577532793,
          5.811366918533788,
          -3.884834658915244,
          1.0877180659475896,
          -1.8323503408197388,
          -0.7204968662609874,
          -3.562606160323522,
          1.0253593571708908,
          0.699051061170527,
          0.30964800004928017
        ]
      ]
    },
    {
      "activation": 1,
      "biases": [
        -0.6062847826665462,
        -1.4216573656684446,
        1.2533777763577372,
        -0.8076545379867749,
        0.8035658585759495,
        -0.30946238438306756,
        -1.2206810856686858,
        1.0532122031305235,
        1.0241556179016489,
        -0.6095026819795587,
        -0.6787612636479091,
        0.08113570151184547,
        0.08302739631012966,
        0.030994215927162054,
        -0.18894806987699517,
        -1.4505951877460928,
        0.04859248300437141,
        -0.05700897893373915,
        1.3807526936267274,
        -1.085896623109496,
        0.249722373243347,
        -0.37067332068816344,
        -0.42843726441568625,
        0.12529219365166577,
        1.1503048041442374,
        -0.775621271654324,
        0.29279272969628073,
        -0.9518499760065351,
        -0.8981769803043422,
        -0.31270670851285315,
        0.6134625984629435,
        -0.3718504611509969,
        -0.2978152870157264,
        -0.3245811877429864,
        0.5185087794154251,
        -1.0953603065151774
      ],
      "cols": 36,
      "rows": 16,
      "weights": [
        [
          1.7320395217167892,
          -0.7706880365299384,
          1.214099658625523,
          -1.353170927021964,
          0.07947460304292464,
          0.01953599305623151,
          -0.9598334697680146,
          0.4861734126467682,
          -1.4992030526529498,
          -1.8362858578649142,
          -0.06889246479665544,
          -1.5557711186154128,
          -0.19482344673737395,
          -2.0085263831491798,
          -2.392730888203694,
          -0.5153153224364985,
          0.9807935984913979,
          -0.7615579068026723,
          3.0779140391843063,
          0.43440007108979506,
          0.5917813302742596,
          -1.7433044042052457,
          -1.936297423831913,
          -0.20817013158916362,
          0.5938762930160583,
          -1.8368113552375964,
          1.4156830788905113,
          0.22661996226038525,
          1.6946599862611817,
          -1.5558644116993279,
          -1.8985845486763482,
          0.16969331169104454,
          0.3793824353272278,
          1.397198975199211,
          0.07697869419284967,
          0.11211556169916156
        ],
        [
          -1.5342843258687526,
          0.04277068438034704,
          0.5159085982789886,
          0.9539063717773473,
          0.7983232319349183,
          -0.8673453821006095,
          -0.1212245911995841,
          0.5504866691046694,
          2.3810563055235856,
          0.6279189043343311,
          -1.27626991122984,
          1.5632374270406,
          1.0116269814936674,
          0.6909378924860259,
          1.2458233864759518,
          -1.8201735160197927,
          -1.4030428552846423,
          -0.11241693186132361,
          0.0048901448305186295,
          -0.2906205894890398,
          0.18713936823744942,
          1.4562151228374027,
          1.2643689461665029,
          1.029134464405261,
          1.4707021631923272,
          -0.581467808218946,
          0.5697009188584327,
          -1.9451284870963312,
          -1.6264880379196922,
          0.8533557138626022,
          1.7997081036501064,
          -0.9025728529884791,
          -0.05119758370366297,
          -1.5714682471715098,
          0.36132939022647426,
          -1.480241362676531
        ],
        [
          -0.42832420274837074,
          3.510405117739219,
          0.5375908039474722,
          2.81272277367304,
          1.3111394716823945,
          1.757203996234434,
          0.3821526169197798,
          -0.5665446338911331,
          0.008323818624071786,
          0.5358855965699971,
          1.2367109623566408,
          -2.5446563235766595,
          -1.3113287601984944,
          0.8130970579046305,
          -1.3928911103719597,
          -0.04535784246606356,
          1.415185049395193,
          1.1263792335384233,
          -1.6393211813950659,
          3.3916790618924284,
          -1.100574388006807,
          0.290444856848312,
          -0.8314792400708532,
          -0.72989790864287,
          -1.4175445295190259,
          0.029870793384546106,
          0.4728052706462954,
          2.3070434795315764,
          1.4682636112332204,
          2.4165368631282886,
          -3.4542005922223704,
          4.845645943330851,
          2.321696948159535,
          1.758778117386211,
          -1.0415609079520542,
          1.2205206007639644
        ],
        [
          -2.467235732270494,
          -0.21963449181879804,
          0.3801967671721268,
          0.8250238460252779,
          0.939565645622524,
          -0.23784224054161868,
          -0.07269666462564836,
          0.36493125978383195,
          2.9152249200675766,
          1.0218739911910932,
          -1.209703790597921,
          1.1531979350692896,
          0.1793436658533965,
          2.265870714721603,
          2.3491996076996546,
          -0.5977490701193756,
          -1.0904029531041448,
          1.0572578941996285,
          -1.4457823162173546,
          -1.6033946286456655,
          -0.46895695747478183,
          1.464084388852705,
          1.464012935510322,
          -0.2591982785366031,
          0.056626348794208956,
          0.6686893615485608,
          -1.83618468958398,
          -1.2138280526177152,
          -2.050523200449033,
          1.501409330846026,
          2.6201801167465444,
          -0.6128196054581148,
          0.021832585930893312,
          -1.7961236427029623,
          0.36572847165168304,
          -0.956225833903774
        ],
        [
          5.611960416684429,
          -2.2313128453873317,
          -2.6388035286616147,
          -2.622160333737987,
          -2.4317876502931175,
          -0.6527817769543467,
          0.08054501519562299,
          -0.33169570114003155,
          -3.44255019466661,
          -0.547568554536646,
          2.9138149038058407,
          -0.25648847555680104,
          0.7045161513333361,
          -2.345865333578903,
          -0.3943400047367182,
          3.6980119514417584,
          0.1109688301991523,
          1.1762514351995748,
          0.4466168329023601,
          -3.7183554485579786,
          0.9613419423645676,
          -2.2972899759090577,
          -0.6549169697097352,
          -0.6049471460863484,
          -1.5898474941608773,
          0.11699678970164526,
          -1.659998826112402,
          -0.8260089927583995,
          0.015292761222836784,
          -1.675850714665827,
          0.36624410303577853,
          -5.145612288007116,
          -2.1342995493737145,
          1.028445749237059,
          -1.0115016129828551,
          1.1695436216688533
        ],
        [
          0.8112898887905691,
          0.7455534175860974,
          -2.814182377457311,
          0.030310340390934158,
          -2.518816781943604,
          -0.29462020616967255,
          1.7191663010754872,
          -1.145380754774596,
          -2.064921654243637,
          1.6303341695457492,
          2.305512213127406,
          1.8164780863565548,
          0.1487034194045476,
          0.3007726888451937,
          0.9244206210449039,
          2.689781900162044,
          -0.6917030007892975,
          0.7578562637391811,
          -2.4684603332702575,
          1.6711965154387254,
          -1.1742583079493025,
          0.6503589397756452,
          0.43047260955823724,
          0.6794382314633318,
          -2.278126835618598,
          3.207026954295218,
          -0.5379294353630275,
          1.5821166310143115,
          0.23958952385541246,
          -0.025741613986670634,
          -0.319877555106699,
          0.5869083354954197,
          -1.3929286438381758,
          0.4240992337570563,
          -0.8302804477134436,
          1.3327127335815174
        ],
        [
          0.18929935825490135,
          0.44737857841733764,
          1.4724658502952337,
          0.9120238028663039,
          1.636602893815955,
          0.24371742808486918,
          -1.1692952595878494,
          0.589025637644697,
          1.6499027134106083,
          0.07332448908525896,
          0.42623543673480835,
          -0.7762605896098939,
          0.21225878359849817,
          0.0013652283776847333,
          0.8383568011343737,
          -1.1507105862469273,
          0.46623941046506007,
          1.046953451471176,
          0.25401994118418414,
          -1.35960041421506,
          0.0014479511662636132,
          0.23482564708886416,
          0.35823668232096406,
          -0.714408310520974,
          1.1011749876877885,
          -1.589195108041967,
          -0.529389505061642,
          -1.2054949445704592,
          -1.2638493037614806,
          1.559271791533296,
          -0.015784817635313843,
          -0.0065880929576281775,
          0.27877325240229006,
          -0.48840558685454405,
          -0.07361071160244752,
          -1.0660742294152505
        ],
        [
          2.2638420685750575,
          3.457425895057828,
          0.03231693221735983,
          4.210189657516937,
          3.594551660016763,
          0.309347405065144,
          0.6065271309216275,
          -1.4137993820559909,
          1.9436759851785361,
          -0.9807379379074356,
          0.019445250674722615,
          -2.492488272544994,
          0.5256953850787369,
          1.1278940773974178,
          0.7563293180584147,
          0.6111693835365958,
          -0.7592085694167893,
          1.4907965137215906,
          -1.3687340418967584,
          -1.7680592901496717,
          0.18138916614105946,
          0.8249110415137184,
          0.8504988020582853,
          -0.9904946388384506,
          0.6550524105500682,
          -3.2694633389363905,
          -0.9170136691744321,
          -2.9362608948655318,
          -0.364873438222602,
          4.10036291042925,
          0.1823530837036792,
          -2.0610409390814106,
          3.503665739462279,
          -1.3311260147728978,
          -1.34064189955889,
          0.2385619049008704
        ],
        [
          -2.42206684821734,
          -0.73993531849298,
          0.7132171200202431,
          -0.4589541248336526,
          0.2683150964063622,
          0.05597358808965348,
          -0.47203587646591416,
          0.8370965269973489,
          1.6085797395666743,
          1.2610302790484749,
          -0.7989508160390976,
          1.7180476211327762,
          -0.1578208603633441,
          1.0017801007958518,
          1.4333069544326051,
          -1.0622499535936243,
          -0.14929794457721438,
          0.7231933410833263,
          -0.4154122552103461,
          -1.1812098042539874,
          -0.9189867600253057,
          1.1819202158318871,
          0.6765153697337652,
          0.15056025331616724,
          0.45761086289826963,
          0.8896325962757291,
          -0.1969609693422741,
          -0.4290686311691527,
          -1.5071029653969998,
          0.42370144750697614,
          0.9667957037518438,
          0.7518149222967021,
          -1.1725263245491435,
          -0.9333411560125536,
          0.7851928366333001,
          -1.1510580737600202
        ],
        [
          -3.3678546117960764,
          -0.6601691927952648,
          -1.5872773781604186,
          -1.5729158725669032,
          -2.274440336697808,
          0.15023642766325485,
          1.759459823853675,
          -0.394958875803702,
          -1.6974107563174412,
          0.4840104162149322,
          -1.5786785970341188,
          1.2675586092189854,
          -1.075764647536932,
          1.92215814505376,
          -0.2009398669484037,
          1.9894277669601204,
          -0.7094175543564857,
          -0.1925026699518964,
          -1.8586525278910921,
          1.9317698506856886,
          -0.860836678189272,
          1.0295645152646127,
          -0.40097891002946334,
          0.32125865593746833,
          -3.1675006362643985,
          2.3594248779262137,
          -0.3219667643945668,
          1.297268459578406,
          0.38780604338827246,
          -1.9235240242349463,
          0.1337874153298181,
          1.458727890592384,
          -0.12294586399079865,
          1.2117996468942636,
          1.586025489880605,
          2.661843787292149
        ],
        [
          -0.5252680480952077,
          -0.5905769017871793,
          1.2665098795081067,
          0.861853022829439,
          0.9465731857493419,
          -0.6657756890642397,
          -0.9641936986193428,
          0.7870561214347986,
          1.446372675803804,
          1.2384676828684607,
          0.1433821135047168,
          1.4576050407298773,
          0.9529814115440497,
          -0.6913141539749595,
          0.6427134390036988,
          -2.286124361476645,
          -0.5508681526016288,
          0.8417052472443445,
          -0.03709324411280736,
          -0.11688484131107255,
          -0.484292380889446,
          1.4228408506368344,
          0.2744655194163881,
          0.7773262872337631,
          2.2983005802222882,
          -1.721447054997598,
          1.7029865540672562,
          -2.7136904677897413,
          -1.7498674677370167,
          0.7340410027733918,
          0.5607993016347791,
          -0.2883794005412636,
          -0.8690751556655175,
          -1.9860303373202124,
          0.41630487104555647,
          -1.4702057956474033
        ],
        [
          -1.53320137324598,
          -1.921195542315516,
          1.5504195315217784,
          -1.2669576669911506,
          0.24205294613372494,
          -0.5240017912035675,
          -0.6357223825223185,
          1.084310102488057,
          0.17673503978087818,
          0.04768652890148525,
          -0.9224335199824323,
          0.44229631096930105,
          -0.2652150987277255,
          -0.5591885900533049,
          -0.7835059456737832,
          -1.6511590380406291,
          -0.35356468667615276,
          -0.2663190749483798,
          0.749804493843177,
          0.26861701133465354,
          -0.39235401610694365,
          0.980190611750889,
          -1.0230293865396614,
          0.6047117398767797,
          1.083426695901639,
          -1.1987166314579794,
          1.2946289577826957,
          -1.046494553482413,
          -0.5640131627786249,
          -1.3406541808802417,
          -0.07307581066653908,
          -0.32680804517441236,
          -0.41277209843270685,
          -0.6744829755140749,
          1.3132539422593885,
          -0.615245716098457
        ],
        [
          -0.06394906987569833,
          0.6274709051701861,
          -1.2170648874425833,
          0.3963583695439663,
          -1.2735517207664795,
          0.038892249176707916,
          0.5868786200945642,
          -0.26306405697848384,
          -0.5001449745685678,
          1.763497874426414,
          1.375291213831631,
          0.751299671131487,
          -0.23636573136647349,
          0.060644185702282416,
          0.3414233181094646,
          0.5418318702875167,
          -0.3414179901851847,
          0.9005812009051938,
          -1.4576268398638295,
          1.403602456777465,
          -1.513691421041744,
          1.0223329439487758,
          0.5347335334003935,
          0.8360836984319793,
          -0.6779997330085283,
          1.328199093188455,
          0.7449128150153862,
          1.2139365735574297,
          -0.02907421099487524,
          0.03942065042307793,
          -0.3924883684959416,
          1.2755485711804377,
          -1.1743694492483572,
          0.28478224702488575,
          -0.1743989209527075,
          0.27461268184277055
        ],
        [
          -0.2289335671772249,
          -0.18841189461975738,
          0.08492158318083559,
          0.010667003208264081,
          0.6791575577050145,
          -0.29451250709649873,
          -0.4053218412453596,
          0.24664569891404453,
          1.7522259026800389,
          -1.1893597651673298,
          -0.4503224824983716,
          1.1471275604093525,
          1.3521205654741766,
          0.2622051923771512,
          0.45565984902704015,
          -1.6308865657895577,
          0.4065802765881885,
          -1.922967774232206,
          1.9947668501487656,
          -1.0179389017103704,
          1.9400572188580474,
          -1.7091505130718132,
          1.202870530939572,
          0.3023525237026851,
          2.1691498859100413,
          2.7031251461758075,
          -1.0720995248953498,
          1.520547459511573,
          -0.062358366225501685,
          0.15206231942104903,
          2.2460971406978203,
          0.6330516485475339,
          -0.41198558906280747,
          -0.7297632816612717,
          -0.8275010653202243,
          -2.7607240236580375
        ],
        [
          -0.4508415833682941,
          0.20512471274445532,
          -0.14988180684493088,
          -0.32854356110926586,
          0.41379233031456275,
          0.41108162494041667,
          -0.7569476153278956,
          0.332412790383993,
          1.223475483037086,
          -1.7193405504510346,
          -0.6628979608891004,
          0.39519208952200824,
          0.1941118689797634,
          0.1389116477772763,
          0.01750027217511944,
          -1.042691108946584,
          0.7969718854586633,
          -1.3516908476836098,
          1.647053771843364,
          -0.46312983403588165,
          1.451995232288289,
          -2.1373019886543756,
          0.28876749960730946,
          -0.025534995506855587,
          1.2287217394183427,
          1.8477348163675615,
          -1.1996146866216366,
          2.1729169906230736,
          0.3079572011909863,
          0.02646625185723226,
          0.607629651134829,
          1.2120573825622059,
          -0.1091863245902865,
          0.39909686960603363,
          -0.4259323902496931,
          -1.9544939045078966
        ],
        [
          -1.9441824227933846,
          0.14453631260235777,
          1.3999640125159682,
          1.0161326096791354,
          1.0922926878215855,
          -0.7389285659667033,
          -0.6341112806781156,
          0.6014475648691029,
          2.644417507697999,
          -0.342407556632109,
          -1.387560562559867,
          1.3341633203586145,
          0.9594539744147693,
          0.8389814642356512,
          0.6900971648840897,
          -2.031224789665504,
          -0.29277728297886035,
          -0.6448527761376892,
          1.1452021275570998,
          0.6938724390661664,
          0.4909531894006454,
          0.9485084547328283,
          0.687808843520809,
          0.7098177048626472,
          1.8178876976531164,
          0.48429872432125004,
          0.6254691596192145,
          0.1462396110336598,
          -0.9151144430581891,
          0.3587961634122606,
          1.1700731484639217,
          1.1775477197936057,
          0.253294318791146,
          -1.2321679007722122,
          0.146551382788105,
          -2.0444094595859066
        ]
      ]
    }
  ]
}
