{
  "layers": [
    {
      "activation": 1,
      "biases": [
        -2.2208233933687134,
        -0.32483760467702344,
        -0.2727724509599118,
        -0.05931895392288751,
        6.6367151883510465,
        1.022572890854774,
        1.5743968710282805,
        1.1447903928992766
      ],
      "cols": 8,
      "rows": 4,
      "weights": [
        [
          1.7161265362352809,
          0.17202619958018486,
          2.6524538574116843,
          -0.17064270761177555,
          -2.112777264892544,
          -1.4112480979208917,
          -2.1666733847704323,
          -4.063000480426311
        ],
        [
          0.18108711742450717,
          1.2537432957527361,
          -3.1863918562750166,
          -1.633405196764384,
          -3.6026110754554117,
          -0.5922545032215444,
          -0.21715004109098657,
          0.6249398009424715
        ],
        [
          -0.3232808439365572,
          0.9840487870604385,
          -8.01312341472076,
          -3.4728893468398954,
          -3.5261178649235556,
          -0.2613536863120271,
          0.47896526808764045,
          0.8296329492376512
        ],
        [
          1.5497191608626433,
          -0.7868088426007854,
          3.87893191779884,
          1.7279515696952206,
          1.5747692859046563,
          0.009221566351475316,
          -1.7765760103960013,
          -3.498436008835109
        ]
      ]
    },
    {
      "activation": 1,
      "biases": [
        0.6026658479696579,
        0.3898924106130155,
        0.3773616349297683,
        -0.6252208899736706,
        -0.9224304137684083,
        -0.5077401428324463,
        -0.022238627882462794,
        -0.09802948344296693,
        0.03249903640198488,
        -0.6497340537795862,
        -1.0816681351929933,
        -0.8794364899507392,
        1.0369787928221932
      ],
      "cols": 13,
      "rows": 8,
      "weights": [
        [
          0.9773510661237466,
          0.5176246843836873,
          0.7974223248919124,
          -0.7023932391752475,
          -0.7152854200900672,
          -0.9712818110369555,
          0.5864352575518874,
          0.11277878732968614,
          -0.76372742550134,
          -1.0984751650650382,
          -3.4321433913743697,
          -0.842994489362673,
          2.0312687419885873
        ],
        [
          0.6144236224685768,
          0.4355385534800981,
          -0.0778653191410002,
          0.43353061694973477,
          -1.5522361520564734,
          -1.0009437197958075,
          0.7564473654661923,
          0.06182337941605983,
          -0.25213152083308055,
          -0.16992622639879906,
          -0.7615784446338502,
          -0.6971701786694064,
          1.2778036411140448
        ],
        [
          -2.2301021554174607,
          1.7811005147796046,
          1.3157251232579497,
          3.6377362402195623,
          2.2969491231094725,
          -3.5355973486335275,
          1.9161748149201225,
          -1.9864123638488307,
          3.507868669585941,
          -3.5285606444859456,
          -3.2617204746559376,
          0.635252561475816,
          3.1422841746128807
        ],
        [
          -0.4689065277636031,
          -0.07284510318314491,
          0.742557128638861,
          0.833237377963327,
          1.8995801236732355,
          -0.4150735247860469,
          -0.5122245875515363,
          -0.6681141176482549,
          1.8929826075268645,
          -0.8474932200645904,
          -0.9581912436968025,
          0.8614463267383863,
          0.43615257523153944
        ],
        [
          -0.9368839606095465,
          -2.661161370754551,
          -0.9086121383895953,
          -1.369802639450431,
          3.2519553676690838,
          2.8679305719646293,
          -2.0821705540174453,
          0.08742803192863738,
          -0.6566613364958879,
          1.4657999839067153,
          4.228605915524093,
          1.2454665206058297,
          -3.950017885767355
        ],
        [
          -0.42336191986286464,
          -0.5534934843267075,
          0.2508339279815396,
          -0.023614746312002385,
          0.2332229312739962,
          0.48295170887272676,
          -0.4619595442472895,
          0.34784610834524715,
          0.46297965391812895,
          0.019090994849587248,
          1.7488006440605008,
          0.48915581229570526,
          -0.654825569764612
        ],
        [
          -0.8522224721517839,
          -0.05001902330219568,
          -0.31581300489704794,
          1.0287916531892367,
          0.4460727148246418,
          0.14385214685123146,
          -0.20645413850597744,
          0.16906459627635326,
          1.404580712381959,
          1.4821835649075759,
          2.8820108630043273,
          0.16858132227487374,
          -0.28335653268121364
        ],
        [
          -0.8790355848327935,
          1.0749162712235265,
          -0.06723402296377065,
          3.167808523757044,
          -0.008676629350040425,
          -1.7977419548342874,
          0.4773495523340596,
          -0.3833133266929037,
          3.0683836152038073,
          -0.1608462297666983,
          2.464975350382788,
          0.18724721384273527,
          1.2361049296538407
        ]
      ]
    }
  ]
}
