{
  "layers": [
    {
      "activation": 1,
      "biases": [
        -3.2702459034556113,
        -2.451792355830892,
        1.5844288788403398,
        4.396286849466111,
        3.515541683104512,
        0.9415600150503294,
        0.3127792206962053,
        1.4137488452900702
      ],
      "cols": 8,
      "rows": 4,
      "weights": [
        [
          0.8246941559122166,
          2.3985098258443514,
          -0.011660730471585863,
          -3.090475586802169,
          -2.715722186307514,
          -1.5419157446002512,
          -1.4436688133580524,
          -1.4726284285629123
        ],
        [
          0.2719707378592854,
          4.206080735973857,
          -0.6549304346031929,
          -3.419193871477374,
          -2.7922283209003336,
          -1.731206212360978,
          -2.0076861523178406,
          -0.5303601084205085
        ],
        [
          1.1239943005423627,
          -1.251366593799285,
          -1.0139340826120111,
          0.6290134324645289,
          -3.3845133674177497,
          0.4746663030543696,
          1.5462834033042618,
          0.135662292664838
        ],
        [
          1.6277525876505228,
          -1.9694378883728048,
          -0.7556991026153329,
          0.7202564829814555,
          -2.452381208684245,
          1.2655363026403517,
          1.3642320603428477,
          -0.36369415329684185
        ]
      ]
    },
    {
      "activation": 1,
      "biases": [
        1.0244196227537374,
        -0.02791141117358025,
        -0.43733180235884556,
        -1.023209275735659,
        -0.6825415902003911,
        -0.6783830529965722,
        0.6369433533898705,
        0.4672427784357531,
        -0.519520808459104,
        -0.4081920640904631,
        0.17671730832740398,
        -0.15082809218956603,
        -0.03470775383539559
      ],
      "cols": 13,
      "rows": 8,
      "weights": [
        [
          1.6508178010170433,
          0.2579554703456345,
          0.004260306692481323,
          -1.1521651007234617,
          -1.8780476955634002,
          0.81942319872316,
          0.3207719207400095,
          1.4782732771299516,
          -0.9179189459871653,
          0.5172343794266084,
          -0.7987076677843323,
          -3.203506977716822,
          1.9937218114551123
        ],
        [
          3.056969244109191,
          -1.7628857192367493,
          -1.7462851589505335,
          -0.5906963949254838,
          -0.6561979851579561,
          -2.5334748098819393,
          1.5957429688416316,
          0.3451443908424634,
          -2.4944726840088585,
          -0.873033591916475,
          1.4786558003956296,
          -2.7885431219954686,
          -0.8650884197377638
        ],
        [
          -0.24875096084832551,
          -0.0012030864217103053,
          0.021995753129992305,
          0.32578169460000356,
          0.8620726458787973,
          -0.6708751712614782,
          0.7075918336797292,
          -0.14162808755048617,
          0.06233966939432421,
          -0.6299515570511586,
          0.19372945941851674,
          1.9666135031788985,
          -1.1241895374379782
        ],
        [
          -1.5225852263090023,
          1.8700195761426077,
          0.9091158538715924,
          -0.49874533040952185,
          0.9710547994764492,
          1.6052204905358174,
          -0.9572042680849671,
          0.1779131207445857,
          2.8364508978318796,
          0.9718587292943311,
          -1.267060514513278,
          3.759864349214671,
          -0.08283665636239082
        ],
        [
          0.33834950096113947,
          -4.83302720752848,
          0.9680190116440474,
          2.4843972402249075,
          0.21471365105060597,
          -1.3686645438226517,
          0.6475510651618485,
          -0.8720894065640606,
          -5.018166168579931,
          -2.9375135727579944,
          1.0477247117657627,
          1.8824532502890539,
          0.13841464712549614
        ],
        [
          -1.1360564899953873,
          0.8779775651550424,
          0.6333700658406162,
          -0.3906939487316474,
          -0.47106342221886355,
          1.0194114901315112,
          -0.1841766986687558,
          0.7070135648973375,
          0.746090397682214,
          -0.10007580248316052,
          -0.39535055790107454,
          1.710110072689993,
          0.44726012372932783
        ],
        [
          -1.7583979720850917,
          0.8489023853799089,
          0.6550789286114344,
          -0.1419828188047769,
          0.2273977782713333,
          1.2284604893258813,
          -0.45273976219056755,
          0.49973115990099365,
          0.5247035767097968,
          0.6715611960191549,
          -0.9812485691949425,
          0.8690015491215884,
          1.0437019220051695
        ],
        [
          -0.60913244198693,
          0.5521858476849645,
          0.06455155599450887,
          0.2589587980022616,
          0.8386730718112398,
          -0.3936711313708308,
          -0.32559020825194,
          0.10691972137919237,
          0.8607816774605085,
          -0.4249166711404987,
          0.05161452234302826,
          1.6979230429474035,
          -0.27097622933246923
        ]
      ]
    }
  ]
}
